<?xml version="1.0"?>
<opencv_storage>
<stage9>
  <maxWeakCount>15</maxWeakCount>
  <stageThreshold>-1.3921114206314087e+00</stageThreshold>
  <weakClassifiers>
    <_>
      <internalNodes>
        0 -1 25492 -9.4696376472711563e-03</internalNodes>
      <leafValues>
        6.9072163105010986e-01 -4.9828177690505981e-01</leafValues></_>
    <_>
      <internalNodes>
        0 -1 113523 1.6363941133022308e-02</internalNodes>
      <leafValues>
        -5.0689083337783813e-01 3.3471029996871948e-01</leafValues></_>
    <_>
      <internalNodes>
        0 -1 5192 4.8433974385261536e-02</internalNodes>
      <leafValues>
        -3.9838632941246033e-01 3.7267273664474487e-01</leafValues></_>
    <_>
      <internalNodes>
        0 -1 54126 3.1936792656779289e-03</internalNodes>
      <leafValues>
        -1.9269825518131256e-01 6.7223894596099854e-01</leafValues></_>
    <_>
      <internalNodes>
        0 -1 892 1.1553249787539244e-03</internalNodes>
      <leafValues>
        -6.1875969171524048e-01 2.3810531198978424e-01</leafValues></_>
    <_>
      <internalNodes>
        0 -1 99130 -1.0375738143920898e-02</internalNodes>
      <leafValues>
        7.8607368469238281e-01 -2.0621927082538605e-01</leafValues></_>
    <_>
      <internalNodes>
        0 -1 71872 -3.1412094831466675e-03</internalNodes>
      <leafValues>
        -6.5861499309539795e-01 2.4291324615478516e-01</leafValues></_>
    <_>
      <internalNodes>
        0 -1 7464 1.9243408460170031e-03</internalNodes>
      <leafValues>
        1.5393124520778656e-01 -6.5531915426254272e-01</leafValues></_>
    <_>
      <internalNodes>
        0 -1 51027 9.4240643084049225e-03</internalNodes>
      <leafValues>
        -1.9237717986106873e-01 5.9641295671463013e-01</leafValues></_>
    <_>
      <internalNodes>
        0 -1 5805 1.0818207636475563e-02</internalNodes>
      <leafValues>
        -2.4769186973571777e-01 5.2100187540054321e-01</leafValues></_>
    <_>
      <internalNodes>
        0 -1 44509 3.2595731317996979e-02</internalNodes>
      <leafValues>
        -2.2459140419960022e-01 5.5113089084625244e-01</leafValues></_>
    <_>
      <internalNodes>
        0 -1 110266 -4.9479935114504769e-05</internalNodes>
      <leafValues>
        2.2543731331825256e-01 -6.0673135519027710e-01</leafValues></_>
    <_>
      <internalNodes>
        0 -1 124712 -3.8391350244637579e-05</internalNodes>
      <leafValues>
        2.3136392235755920e-01 -5.2311235666275024e-01</leafValues></_>
    <_>
      <internalNodes>
        0 -1 119434 1.0006444528698921e-02</internalNodes>
      <leafValues>
        -2.1505950391292572e-01 6.0062938928604126e-01</leafValues></_>
    <_>
      <internalNodes>
        0 -1 86740 1.2618766631931067e-03</internalNodes>
      <leafValues>
        2.3492495715618134e-01 -5.5170857906341553e-01</leafValues></_></weakClassifiers></stage9>
</opencv_storage>
