<?xml version="1.0"?>
<opencv_storage>
<stage1>
  <maxWeakCount>6</maxWeakCount>
  <stageThreshold>-1.8635573387145996e+00</stageThreshold>
  <weakClassifiers>
    <_>
      <internalNodes>
        0 -1 47852 3.7890464067459106e-02</internalNodes>
      <leafValues>
        -7.6284587383270264e-01 8.0412369966506958e-01</leafValues></_>
    <_>
      <internalNodes>
        0 -1 63466 2.7429811656475067e-02</internalNodes>
      <leafValues>
        -5.5130571126937866e-01 7.4035757780075073e-01</leafValues></_>
    <_>
      <internalNodes>
        0 -1 124379 -8.5645195213146508e-05</internalNodes>
      <leafValues>
        5.2313601970672607e-01 -6.8226850032806396e-01</leafValues></_>
    <_>
      <internalNodes>
        0 -1 6427 1.6024895012378693e-02</internalNodes>
      <leafValues>
        -4.0335950255393982e-01 8.2684922218322754e-01</leafValues></_>
    <_>
      <internalNodes>
        0 -1 70409 1.0003762319684029e-02</internalNodes>
      <leafValues>
        -3.0748820304870605e-01 8.5676282644271851e-01</leafValues></_>
    <_>
      <internalNodes>
        0 -1 117000 8.3880491729360074e-05</internalNodes>
      <leafValues>
        -4.4795295596122742e-01 5.1322269439697266e-01</leafValues></_></weakClassifiers></stage1>
</opencv_storage>
