<?xml version="1.0"?>
<opencv_storage>
<stage11>
  <maxWeakCount>14</maxWeakCount>
  <stageThreshold>-1.3389755487442017e+00</stageThreshold>
  <weakClassifiers>
    <_>
      <internalNodes>
        0 -1 103371 1.3020833954215050e-02</internalNodes>
      <leafValues>
        -4.8269894719123840e-01 6.1052632331848145e-01</leafValues></_>
    <_>
      <internalNodes>
        0 -1 64204 1.0076060425490141e-03</internalNodes>
      <leafValues>
        1.9916167855262756e-01 -5.6831926107406616e-01</leafValues></_>
    <_>
      <internalNodes>
        0 -1 82 8.1649981439113617e-03</internalNodes>
      <leafValues>
        -5.7903784513473511e-01 2.0157548785209656e-01</leafValues></_>
    <_>
      <internalNodes>
        0 -1 68330 5.6906435638666153e-03</internalNodes>
      <leafValues>
        -2.4413523077964783e-01 4.9204945564270020e-01</leafValues></_>
    <_>
      <internalNodes>
        0 -1 123717 -2.9030917212367058e-03</internalNodes>
      <leafValues>
        -6.1704832315444946e-01 1.9529242813587189e-01</leafValues></_>
    <_>
      <internalNodes>
        0 -1 124833 1.4790805056691170e-02</internalNodes>
      <leafValues>
        1.6885600984096527e-01 -7.0623189210891724e-01</leafValues></_>
    <_>
      <internalNodes>
        0 -1 64171 -1.2027390766888857e-04</internalNodes>
      <leafValues>
        1.7726258933544159e-01 -6.6263395547866821e-01</leafValues></_>
    <_>
      <internalNodes>
        0 -1 77448 1.2952586635947227e-02</internalNodes>
      <leafValues>
        -3.5903143882751465e-01 3.8265243172645569e-01</leafValues></_>
    <_>
      <internalNodes>
        0 -1 28842 -9.7721465863287449e-05</internalNodes>
      <leafValues>
        2.2921550273895264e-01 -5.6829679012298584e-01</leafValues></_>
    <_>
      <internalNodes>
        0 -1 96996 6.9053312763571739e-03</internalNodes>
      <leafValues>
        -2.7579939365386963e-01 4.8295748233795166e-01</leafValues></_>
    <_>
      <internalNodes>
        0 -1 124499 -1.1178173590451479e-03</internalNodes>
      <leafValues>
        -7.6711130142211914e-01 1.6760493814945221e-01</leafValues></_>
    <_>
      <internalNodes>
        0 -1 120869 1.4271683990955353e-02</internalNodes>
      <leafValues>
        -2.2939987480640411e-01 5.8741986751556396e-01</leafValues></_>
    <_>
      <internalNodes>
        0 -1 125090 6.2558637000620365e-04</internalNodes>
      <leafValues>
        1.9608466327190399e-01 -6.6143238544464111e-01</leafValues></_>
    <_>
      <internalNodes>
        0 -1 108847 3.3886893652379513e-03</internalNodes>
      <leafValues>
        -3.2469198107719421e-01 3.5296446084976196e-01</leafValues></_></weakClassifiers></stage11>
</opencv_storage>
