<?xml version="1.0"?>
<opencv_storage>
<stage0>
  <maxWeakCount>6</maxWeakCount>
  <stageThreshold>-1.1797825098037720e+00</stageThreshold>
  <weakClassifiers>
    <_>
      <internalNodes>
        0 -1 79576 2.3963503539562225e-02</internalNodes>
      <leafValues>
        -7.9020977020263672e-01 8.1234568357467651e-01</leafValues></_>
    <_>
      <internalNodes>
        0 -1 113804 1.1528485454618931e-02</internalNodes>
      <leafValues>
        -6.6881251335144043e-01 7.6605141162872314e-01</leafValues></_>
    <_>
      <internalNodes>
        0 -1 1061 4.9168970435857773e-03</internalNodes>
      <leafValues>
        -6.6321516036987305e-01 5.7625740766525269e-01</leafValues></_>
    <_>
      <internalNodes>
        0 -1 47622 8.8557018898427486e-04</internalNodes>
      <leafValues>
        -7.1057629585266113e-01 5.1457786560058594e-01</leafValues></_>
    <_>
      <internalNodes>
        0 -1 76396 1.7343856394290924e-02</internalNodes>
      <leafValues>
        -3.9346703886985779e-01 8.2066029310226440e-01</leafValues></_>
    <_>
      <internalNodes>
        0 -1 60750 6.4900461584329605e-03</internalNodes>
      <leafValues>
        -3.0239355564117432e-01 8.2134413719177246e-01</leafValues></_></weakClassifiers></stage0>
</opencv_storage>
