<?xml version="1.0"?>
<opencv_storage>
<stage13>
  <maxWeakCount>14</maxWeakCount>
  <stageThreshold>-1.2360117435455322e+00</stageThreshold>
  <weakClassifiers>
    <_>
      <internalNodes>
        0 -1 43941 6.2216771766543388e-03</internalNodes>
      <leafValues>
        -4.8387095332145691e-01 4.6118721365928650e-01</leafValues></_>
    <_>
      <internalNodes>
        0 -1 71852 -2.6186322793364525e-03</internalNodes>
      <leafValues>
        -9.2764705419540405e-01 1.1833754181861877e-01</leafValues></_>
    <_>
      <internalNodes>
        0 -1 76308 3.5881884396076202e-03</internalNodes>
      <leafValues>
        -2.4038334190845490e-01 5.5961358547210693e-01</leafValues></_>
    <_>
      <internalNodes>
        0 -1 75731 9.9109644070267677e-03</internalNodes>
      <leafValues>
        -2.3743130266666412e-01 6.0712909698486328e-01</leafValues></_>
    <_>
      <internalNodes>
        0 -1 114016 1.2340974062681198e-02</internalNodes>
      <leafValues>
        -3.2747095823287964e-01 3.5407787561416626e-01</leafValues></_>
    <_>
      <internalNodes>
        0 -1 93719 1.0497855022549629e-02</internalNodes>
      <leafValues>
        -4.1600531339645386e-01 2.5282609462738037e-01</leafValues></_>
    <_>
      <internalNodes>
        0 -1 68739 7.5800299644470215e-02</internalNodes>
      <leafValues>
        1.0305899381637573e-01 -9.4680458307266235e-01</leafValues></_>
    <_>
      <internalNodes>
        0 -1 113696 6.4179999753832817e-05</internalNodes>
      <leafValues>
        -3.4053292870521545e-01 3.2220396399497986e-01</leafValues></_>
    <_>
      <internalNodes>
        0 -1 124103 -1.2620616704225540e-02</internalNodes>
      <leafValues>
        -8.5415017604827881e-01 1.2254638224840164e-01</leafValues></_>
    <_>
      <internalNodes>
        0 -1 117628 1.0424431413412094e-02</internalNodes>
      <leafValues>
        -1.9823962450027466e-01 6.0079818964004517e-01</leafValues></_>
    <_>
      <internalNodes>
        0 -1 124779 -1.4229994267225266e-03</internalNodes>
      <leafValues>
        -8.6569696664810181e-01 1.2870593369007111e-01</leafValues></_>
    <_>
      <internalNodes>
        0 -1 80049 1.3556394260376692e-03</internalNodes>
      <leafValues>
        1.9189630448818207e-01 -4.6085688471794128e-01</leafValues></_>
    <_>
      <internalNodes>
        0 -1 62613 7.2316071018576622e-03</internalNodes>
      <leafValues>
        -1.9499261677265167e-01 5.6388121843338013e-01</leafValues></_>
    <_>
      <internalNodes>
        0 -1 9612 3.1929584220051765e-03</internalNodes>
      <leafValues>
        1.6468644142150879e-01 -7.2634583711624146e-01</leafValues></_></weakClassifiers></stage13>
</opencv_storage>
