<?xml version="1.0"?>
<opencv_storage>
<stage6>
  <maxWeakCount>10</maxWeakCount>
  <stageThreshold>-1.8297405242919922e+00</stageThreshold>
  <weakClassifiers>
    <_>
      <internalNodes>
        0 -1 71645 3.0750699341297150e-02</internalNodes>
      <leafValues>
        -7.1248424053192139e-01 1.9655172526836395e-01</leafValues></_>
    <_>
      <internalNodes>
        0 -1 115560 1.6059782356023788e-02</internalNodes>
      <leafValues>
        -3.7886929512023926e-01 5.7331120967864990e-01</leafValues></_>
    <_>
      <internalNodes>
        0 -1 47423 3.4501425921916962e-02</internalNodes>
      <leafValues>
        -5.7650780677795410e-01 3.2463774085044861e-01</leafValues></_>
    <_>
      <internalNodes>
        0 -1 62955 2.4162237532436848e-03</internalNodes>
      <leafValues>
        -2.6089647412300110e-01 7.1859449148178101e-01</leafValues></_>
    <_>
      <internalNodes>
        0 -1 15422 1.4237806200981140e-02</internalNodes>
      <leafValues>
        -3.0501505732536316e-01 5.7313507795333862e-01</leafValues></_>
    <_>
      <internalNodes>
        0 -1 124931 4.8569291830062866e-03</internalNodes>
      <leafValues>
        2.5114700198173523e-01 -7.3180872201919556e-01</leafValues></_>
    <_>
      <internalNodes>
        0 -1 70409 1.0623302310705185e-02</internalNodes>
      <leafValues>
        -2.8167781233787537e-01 5.5954027175903320e-01</leafValues></_>
    <_>
      <internalNodes>
        0 -1 28752 -5.5920565500855446e-03</internalNodes>
      <leafValues>
        -7.6066815853118896e-01 1.9674642384052277e-01</leafValues></_>
    <_>
      <internalNodes>
        0 -1 50335 1.0768353939056396e-02</internalNodes>
      <leafValues>
        -2.2819410264492035e-01 7.0966506004333496e-01</leafValues></_>
    <_>
      <internalNodes>
        0 -1 29002 4.4361393520375714e-05</internalNodes>
      <leafValues>
        -5.0824612379074097e-01 3.3589532971382141e-01</leafValues></_></weakClassifiers></stage6>
</opencv_storage>
