<?xml version="1.0"?>
<opencv_storage>
<stage5>
  <maxWeakCount>9</maxWeakCount>
  <stageThreshold>-1.3595763444900513e+00</stageThreshold>
  <weakClassifiers>
    <_>
      <internalNodes>
        0 -1 76999 3.6333937197923660e-02</internalNodes>
      <leafValues>
        -5.5837106704711914e-01 6.0885608196258545e-01</leafValues></_>
    <_>
      <internalNodes>
        0 -1 63478 3.8186334073543549e-02</internalNodes>
      <leafValues>
        -4.6431091427803040e-01 4.7864422202110291e-01</leafValues></_>
    <_>
      <internalNodes>
        0 -1 72170 1.9626855850219727e-02</internalNodes>
      <leafValues>
        -3.2541814446449280e-01 6.2367445230484009e-01</leafValues></_>
    <_>
      <internalNodes>
        0 -1 113804 1.3456465676426888e-02</internalNodes>
      <leafValues>
        -4.6510314941406250e-01 3.9182886481285095e-01</leafValues></_>
    <_>
      <internalNodes>
        0 -1 2846 1.2029855861328542e-04</internalNodes>
      <leafValues>
        -8.0843710899353027e-01 2.3978440463542938e-01</leafValues></_>
    <_>
      <internalNodes>
        0 -1 51644 5.9110336005687714e-03</internalNodes>
      <leafValues>
        -2.1273151040077209e-01 8.0377012491226196e-01</leafValues></_>
    <_>
      <internalNodes>
        0 -1 60750 3.4892074763774872e-03</internalNodes>
      <leafValues>
        -3.5152783989906311e-01 4.7116568684577942e-01</leafValues></_>
    <_>
      <internalNodes>
        0 -1 110551 1.0287708137184381e-03</internalNodes>
      <leafValues>
        2.4597567319869995e-01 -7.8962379693984985e-01</leafValues></_>
    <_>
      <internalNodes>
        0 -1 62679 8.1768538802862167e-03</internalNodes>
      <leafValues>
        -2.9056730866432190e-01 5.9440231323242188e-01</leafValues></_></weakClassifiers></stage5>
</opencv_storage>
