<?xml version="1.0"?>
<opencv_storage>
<stage14>
  <maxWeakCount>15</maxWeakCount>
  <stageThreshold>-1.4434101581573486e+00</stageThreshold>
  <weakClassifiers>
    <_>
      <internalNodes>
        0 -1 30855 -5.6269031018018723e-02</internalNodes>
      <leafValues>
        4.2063492536544800e-01 -5.0417828559875488e-01</leafValues></_>
    <_>
      <internalNodes>
        0 -1 79376 8.2447221502661705e-03</internalNodes>
      <leafValues>
        -4.1518759727478027e-01 2.6090294122695923e-01</leafValues></_>
    <_>
      <internalNodes>
        0 -1 109145 1.0782558470964432e-02</internalNodes>
      <leafValues>
        -1.8887382745742798e-01 5.5849111080169678e-01</leafValues></_>
    <_>
      <internalNodes>
        0 -1 108907 8.8199209421873093e-03</internalNodes>
      <leafValues>
        -2.5177899003028870e-01 4.6628996729850769e-01</leafValues></_>
    <_>
      <internalNodes>
        0 -1 103371 6.0102883726358414e-03</internalNodes>
      <leafValues>
        -1.8709157407283783e-01 4.8656746745109558e-01</leafValues></_>
    <_>
      <internalNodes>
        0 -1 1052 7.2373105213046074e-03</internalNodes>
      <leafValues>
        -6.1980378627777100e-01 1.8918909132480621e-01</leafValues></_>
    <_>
      <internalNodes>
        0 -1 19367 1.5895797405391932e-03</internalNodes>
      <leafValues>
        2.0951540768146515e-01 -5.0747942924499512e-01</leafValues></_>
    <_>
      <internalNodes>
        0 -1 71593 1.2543926946818829e-02</internalNodes>
      <leafValues>
        -4.2106178402900696e-01 2.5900712609291077e-01</leafValues></_>
    <_>
      <internalNodes>
        0 -1 118539 -8.8248186511918902e-04</internalNodes>
      <leafValues>
        -6.8220537900924683e-01 1.4048963785171509e-01</leafValues></_>
    <_>
      <internalNodes>
        0 -1 108816 1.1624304577708244e-02</internalNodes>
      <leafValues>
        -1.8396480381488800e-01 6.3116317987442017e-01</leafValues></_>
    <_>
      <internalNodes>
        0 -1 97840 7.0937792770564556e-04</internalNodes>
      <leafValues>
        -3.3010181784629822e-01 3.2985380291938782e-01</leafValues></_>
    <_>
      <internalNodes>
        0 -1 64153 2.6867478154599667e-03</internalNodes>
      <leafValues>
        1.7764408886432648e-01 -6.0963207483291626e-01</leafValues></_>
    <_>
      <internalNodes>
        0 -1 35732 4.5594079419970512e-03</internalNodes>
      <leafValues>
        -2.2381198406219482e-01 5.0659382343292236e-01</leafValues></_>
    <_>
      <internalNodes>
        0 -1 19922 -5.9170149266719818e-02</internalNodes>
      <leafValues>
        -6.1651784181594849e-01 1.8094074726104736e-01</leafValues></_>
    <_>
      <internalNodes>
        0 -1 12768 -1.9397448748350143e-02</internalNodes>
      <leafValues>
        3.4561809897422791e-01 -3.1520745158195496e-01</leafValues></_></weakClassifiers></stage14>
</opencv_storage>
