<?xml version="1.0"?>
<opencv_storage>
<stage15>
  <maxWeakCount>14</maxWeakCount>
  <stageThreshold>-1.3790869712829590e+00</stageThreshold>
  <weakClassifiers>
    <_>
      <internalNodes>
        0 -1 5780 3.2307952642440796e-02</internalNodes>
      <leafValues>
        -4.9065005779266357e-01 5.7999998331069946e-01</leafValues></_>
    <_>
      <internalNodes>
        0 -1 72133 1.2366877635940909e-03</internalNodes>
      <leafValues>
        1.7982080578804016e-01 -6.1101496219635010e-01</leafValues></_>
    <_>
      <internalNodes>
        0 -1 49630 1.3717769645154476e-02</internalNodes>
      <leafValues>
        -2.6640349626541138e-01 4.7199469804763794e-01</leafValues></_>
    <_>
      <internalNodes>
        0 -1 70269 9.0729445219039917e-03</internalNodes>
      <leafValues>
        -1.5685677528381348e-01 8.1491833925247192e-01</leafValues></_>
    <_>
      <internalNodes>
        0 -1 91213 4.5729335397481918e-05</internalNodes>
      <leafValues>
        -3.2878273725509644e-01 3.2673627138137817e-01</leafValues></_>
    <_>
      <internalNodes>
        0 -1 53790 1.4073319733142853e-02</internalNodes>
      <leafValues>
        -1.6910210251808167e-01 5.9401726722717285e-01</leafValues></_>
    <_>
      <internalNodes>
        0 -1 123693 7.6261418871581554e-04</internalNodes>
      <leafValues>
        1.8115778267383575e-01 -6.3930714130401611e-01</leafValues></_>
    <_>
      <internalNodes>
        0 -1 14826 6.6012272145599127e-04</internalNodes>
      <leafValues>
        2.2437895834445953e-01 -5.0900316238403320e-01</leafValues></_>
    <_>
      <internalNodes>
        0 -1 104690 1.0320421308279037e-02</internalNodes>
      <leafValues>
        -2.6589432358741760e-01 4.4895115494728088e-01</leafValues></_>
    <_>
      <internalNodes>
        0 -1 86305 8.3758551627397537e-03</internalNodes>
      <leafValues>
        -1.7391577363014221e-01 6.8185973167419434e-01</leafValues></_>
    <_>
      <internalNodes>
        0 -1 124959 1.6549109714105725e-03</internalNodes>
      <leafValues>
        2.0027223229408264e-01 -6.1824262142181396e-01</leafValues></_>
    <_>
      <internalNodes>
        0 -1 120852 2.5516510941088200e-03</internalNodes>
      <leafValues>
        -3.5050341486930847e-01 3.0127561092376709e-01</leafValues></_>
    <_>
      <internalNodes>
        0 -1 72101 4.9846239562612027e-05</internalNodes>
      <leafValues>
        -4.6002057194709778e-01 2.4844430387020111e-01</leafValues></_>
    <_>
      <internalNodes>
        0 -1 61781 1.0982237290591002e-03</internalNodes>
      <leafValues>
        -2.1105235815048218e-01 5.6763505935668945e-01</leafValues></_></weakClassifiers></stage15>
</opencv_storage>
